<?xml version="1.0"?>
<opencv_storage>
<cascade>
  <stageType>BOOST</stageType>
  <featureType>HAAR</featureType>
  <height>20</height>
  <width>20</width>
  <stageParams>
    <boostType>GAB</boostType>
    <minHitRate>9.9500000476837158e-01</minHitRate>
    <maxFalseAlarm>5.0000000000000000e-01</maxFalseAlarm>
    <weightTrimRate>9.4999999999999996e-01</weightTrimRate>
    <maxDepth>1</maxDepth>
    <maxWeakCount>100</maxWeakCount></stageParams>
  <featureParams>
    <maxCatCount>0</maxCatCount>
    <featSize>1</featSize>
    <mode>BASIC</mode></featureParams>
  <stageNum>10</stageNum>
  <stages>
    <!-- stage 0 -->
    <_>
      <maxWeakCount>1</maxWeakCount>
      <stageThreshold>6.2664252519607544e-01</stageThreshold>
      <weakClassifiers>
        <_>
          <internalNodes>
            0 -1 29 4.5861786929890513e-04</internalNodes>
          <leafValues>
            6.2664252519607544e-01 -9.7971600294113159e-01</leafValues></_></weakClassifiers></_>
    <!-- stage 1 -->
    <_>
      <maxWeakCount>2</maxWeakCount>
      <stageThreshold>-2.6782679557800293e-01</stageThreshold>
      <weakClassifiers>
        <_>
          <internalNodes>
            0 -1 29 -1.2159680482000113e-03</internalNodes>
          <leafValues>
            -9.1879349946975708e-01 9.2056584358215332e-01</leafValues></_>
        <_>
          <internalNodes>
            0 -1 35 -5.7348300470039248e-04</internalNodes>
          <leafValues>
            -9.9770152568817139e-01 6.5096670389175415e-01</leafValues></_></weakClassifiers></_>
    <!-- stage 2 -->
    <_>
      <maxWeakCount>2</maxWeakCount>
      <stageThreshold>-2.8253993391990662e-01</stageThreshold>
      <weakClassifiers>
        <_>
          <internalNodes>
            0 -1 29 -4.3950928375124931e-04</internalNodes>
          <leafValues>
            -7.8650307655334473e-01 8.1750661134719849e-01</leafValues></_>
        <_>
          <internalNodes>
            0 -1 8 -9.0842368081212044e-04</internalNodes>
          <leafValues>
            -9.3218398094177246e-01 5.0396317243576050e-01</leafValues></_></weakClassifiers></_>
    <!-- stage 3 -->
    <_>
      <maxWeakCount>5</maxWeakCount>
      <stageThreshold>-1.0831049680709839e+00</stageThreshold>
      <weakClassifiers>
        <_>
          <internalNodes>
            0 -1 15 3.7635595072060823e-04</internalNodes>
          <leafValues>
            6.6132074594497681e-01 -8.6551725864410400e-01</leafValues></_>
        <_>
          <internalNodes>
            0 -1 40 8.4712242824025452e-05</internalNodes>
          <leafValues>
            -7.7899247407913208e-01 4.9454802274703979e-01</leafValues></_>
        <_>
          <internalNodes>
            0 -1 13 -4.1690602665767074e-04</internalNodes>
          <leafValues>
            -9.7491484880447388e-01 3.8683584332466125e-01</leafValues></_>
        <_>
          <internalNodes>
            0 -1 0 2.7655404061079025e-02</internalNodes>
          <leafValues>
            -6.0319727659225464e-01 5.3885674476623535e-01</leafValues></_>
        <_>
          <internalNodes>
            0 -1 18 7.0150679675862193e-05</internalNodes>
          <leafValues>
            -7.4907183647155762e-01 3.8507348299026489e-01</leafValues></_></weakClassifiers></_>
    <!-- stage 4 -->
    <_>
      <maxWeakCount>5</maxWeakCount>
      <stageThreshold>-2.2923631966114044e-01</stageThreshold>
      <weakClassifiers>
        <_>
          <internalNodes>
            0 -1 12 3.9288715925067663e-04</internalNodes>
          <leafValues>
            5.9836435317993164e-01 -8.3567136526107788e-01</leafValues></_>
        <_>
          <internalNodes>
            0 -1 22 5.5532866099383682e-05</internalNodes>
          <leafValues>
            -8.3916592597961426e-01 4.8566040396690369e-01</leafValues></_>
        <_>
          <internalNodes>
            0 -1 28 4.0529834222979844e-04</internalNodes>
          <leafValues>
            2.9420968890190125e-01 -9.7933405637741089e-01</leafValues></_>
        <_>
          <internalNodes>
            0 -1 17 7.0544620975852013e-03</internalNodes>
          <leafValues>
            -4.7832918167114258e-01 6.8066251277923584e-01</leafValues></_>
        <_>
          <internalNodes>
            0 -1 41 -1.6485972446389496e-04</internalNodes>
          <leafValues>
            -9.2529141902923584e-01 3.0489408969879150e-01</leafValues></_></weakClassifiers></_>
    <!-- stage 5 -->
    <_>
      <maxWeakCount>7</maxWeakCount>
      <stageThreshold>-9.0799182653427124e-01</stageThreshold>
      <weakClassifiers>
        <_>
          <internalNodes>
            0 -1 42 -4.5988308556843549e-05</internalNodes>
          <leafValues>
            6.3679468631744385e-01 -7.4957698583602905e-01</leafValues></_>
        <_>
          <internalNodes>
            0 -1 14 -5.1377527415752411e-04</internalNodes>
          <leafValues>
            -9.4968730211257935e-01 3.7863159179687500e-01</leafValues></_>
        <_>
          <internalNodes>
            0 -1 2 9.1716293245553970e-03</internalNodes>
          <leafValues>
            -6.6328626871109009e-01 4.6996068954467773e-01</leafValues></_>
        <_>
          <internalNodes>
            0 -1 41 2.1849054610356688e-04</internalNodes>
          <leafValues>
            1.8533179163932800e-01 -9.7134304046630859e-01</leafValues></_>
        <_>
          <internalNodes>
            0 -1 23 2.5181236196658574e-05</internalNodes>
          <leafValues>
            -7.5094980001449585e-01 3.3128798007965088e-01</leafValues></_>
        <_>
          <internalNodes>
            0 -1 25 4.0771282510831952e-04</internalNodes>
          <leafValues>
            1.8593302369117737e-01 -9.0433591604232788e-01</leafValues></_>
        <_>
          <internalNodes>
            0 -1 46 1.0119725484400988e-03</internalNodes>
          <leafValues>
            -3.7817138433456421e-01 5.0592476129531860e-01</leafValues></_></weakClassifiers></_>
    <!-- stage 6 -->
    <_>
      <maxWeakCount>5</maxWeakCount>
      <stageThreshold>-9.5040750503540039e-01</stageThreshold>
      <weakClassifiers>
        <_>
          <internalNodes>
            0 -1 28 -2.9104441637173295e-04</internalNodes>
          <leafValues>
            -9.4458436965942383e-01 5.5362570285797119e-01</leafValues></_>
        <_>
          <internalNodes>
            0 -1 20 2.2678509412799031e-04</internalNodes>
          <leafValues>
            -7.0585525035858154e-01 4.7278490662574768e-01</leafValues></_>
        <_>
          <internalNodes>
            0 -1 44 2.4289065040647984e-03</internalNodes>
          <leafValues>
            -4.8191055655479431e-01 5.7582223415374756e-01</leafValues></_>
        <_>
          <internalNodes>
            0 -1 34 4.0201318915933371e-04</internalNodes>
          <leafValues>
            2.3725953698158264e-01 -9.6121311187744141e-01</leafValues></_>
        <_>
          <internalNodes>
            0 -1 30 2.7936086989939213e-03</internalNodes>
          <leafValues>
            -5.5352693796157837e-01 4.0981084108352661e-01</leafValues></_></weakClassifiers></_>
    <!-- stage 7 -->
    <_>
      <maxWeakCount>8</maxWeakCount>
      <stageThreshold>-1.0813895463943481e+00</stageThreshold>
      <weakClassifiers>
        <_>
          <internalNodes>
            0 -1 31 4.7114510380197316e-05</internalNodes>
          <leafValues>
            -6.4429527521133423e-01 6.1026614904403687e-01</leafValues></_>
        <_>
          <internalNodes>
            0 -1 3 1.3797429855912924e-03</internalNodes>
          <leafValues>
            -5.0569635629653931e-01 4.7925022244453430e-01</leafValues></_>
        <_>
          <internalNodes>
            0 -1 26 2.0808877889066935e-04</internalNodes>
          <leafValues>
            2.7043658494949341e-01 -8.6122637987136841e-01</leafValues></_>
        <_>
          <internalNodes>
            0 -1 39 1.4889039448462427e-04</internalNodes>
          <leafValues>
            -6.3026463985443115e-01 2.9283803701400757e-01</leafValues></_>
        <_>
          <internalNodes>
            0 -1 19 -5.8038870338350534e-04</internalNodes>
          <leafValues>
            -9.6333920955657959e-01 1.5606451034545898e-01</leafValues></_>
        <_>
          <internalNodes>
            0 -1 16 5.7809776626527309e-04</internalNodes>
          <leafValues>
            -3.5999587178230286e-01 5.5762976408004761e-01</leafValues></_>
        <_>
          <internalNodes>
            0 -1 45 -2.7719642966985703e-03</internalNodes>
          <leafValues>
            4.6135008335113525e-01 -3.4621107578277588e-01</leafValues></_>
        <_>
          <internalNodes>
            0 -1 4 -3.3966707997024059e-03</internalNodes>
          <leafValues>
            7.2488111257553101e-01 -2.7598884701728821e-01</leafValues></_></weakClassifiers></_>
    <!-- stage 8 -->
    <_>
      <maxWeakCount>8</maxWeakCount>
      <stageThreshold>-8.4013295173645020e-01</stageThreshold>
      <weakClassifiers>
        <_>
          <internalNodes>
            0 -1 34 -4.0793465450406075e-04</internalNodes>
          <leafValues>
            -7.8048777580261230e-01 5.3275108337402344e-01</leafValues></_>
        <_>
          <internalNodes>
            0 -1 32 1.9432227127254009e-03</internalNodes>
          <leafValues>
            -4.4682323932647705e-01 5.5886256694793701e-01</leafValues></_>
        <_>
          <internalNodes>
            0 -1 24 -2.5212473701685667e-03</internalNodes>
          <leafValues>
            4.2865300178527832e-01 -5.1551240682601929e-01</leafValues></_>
        <_>
          <internalNodes>
            0 -1 6 -2.2815275005996227e-03</internalNodes>
          <leafValues>
            5.2083325386047363e-01 -3.5100573301315308e-01</leafValues></_>
        <_>
          <internalNodes>
            0 -1 11 -4.6508072409778833e-04</internalNodes>
          <leafValues>
            -8.9931946992874146e-01 1.9693911075592041e-01</leafValues></_>
        <_>
          <internalNodes>
            0 -1 33 1.8452072981745005e-04</internalNodes>
          <leafValues>
            1.4925943315029144e-01 -9.3179845809936523e-01</leafValues></_>
        <_>
          <internalNodes>
            0 -1 43 6.2919512856751680e-05</internalNodes>
          <leafValues>
            -6.6090500354766846e-01 2.1744839847087860e-01</leafValues></_>
        <_>
          <internalNodes>
            0 -1 47 -6.5669877221807837e-04</internalNodes>
          <leafValues>
            4.7306892275810242e-01 -4.1254788637161255e-01</leafValues></_></weakClassifiers></_>
    <!-- stage 9 -->
    <_>
      <maxWeakCount>10</maxWeakCount>
      <stageThreshold>-7.6229643821716309e-01</stageThreshold>
      <weakClassifiers>
        <_>
          <internalNodes>
            0 -1 9 7.7850243542343378e-05</internalNodes>
          <leafValues>
            -3.1187570095062256e-01 6.5647584199905396e-01</leafValues></_>
        <_>
          <internalNodes>
            0 -1 36 2.0391275756992400e-04</internalNodes>
          <leafValues>
            2.5647374987602234e-01 -9.4837379455566406e-01</leafValues></_>
        <_>
          <internalNodes>
            0 -1 38 6.4687384292483330e-04</internalNodes>
          <leafValues>
            -4.5689019560813904e-01 4.2283552885055542e-01</leafValues></_>
        <_>
          <internalNodes>
            0 -1 21 5.2685139962704852e-05</internalNodes>
          <leafValues>
            -7.3905235528945923e-01 2.2294813394546509e-01</leafValues></_>
        <_>
          <internalNodes>
            0 -1 5 1.7622404266148806e-04</internalNodes>
          <leafValues>
            -5.7192492485046387e-01 2.4495270848274231e-01</leafValues></_>
        <_>
          <internalNodes>
            0 -1 10 -3.4534995211288333e-04</internalNodes>
          <leafValues>
            -9.1150760650634766e-01 1.6900137066841125e-01</leafValues></_>
        <_>
          <internalNodes>
            0 -1 7 -5.2686184062622488e-05</internalNodes>
          <leafValues>
            5.1112532615661621e-01 -3.6968934535980225e-01</leafValues></_>
        <_>
          <internalNodes>
            0 -1 37 1.9110302673652768e-04</internalNodes>
          <leafValues>
            -2.9517629742622375e-01 5.8258533477783203e-01</leafValues></_>
        <_>
          <internalNodes>
            0 -1 27 1.6906503878999501e-04</internalNodes>
          <leafValues>
            2.4423411488533020e-01 -8.2768267393112183e-01</leafValues></_>
        <_>
          <internalNodes>
            0 -1 1 -8.2646617665886879e-03</internalNodes>
          <leafValues>
            7.0707756280899048e-01 -2.6352763175964355e-01</leafValues></_></weakClassifiers></_></stages>
  <features>
    <_>
      <rects>
        <_>
          1 5 6 9 -1.</_>
        <_>
          4 5 3 9 2.</_></rects>
      <tilted>0</tilted></_>
    <_>
      <rects>
        <_>
          2 3 6 3 -1.</_>
        <_>
          5 3 3 3 2.</_></rects>
      <tilted>0</tilted></_>
    <_>
      <rects>
        <_>
          2 5 9 10 -1.</_>
        <_>
          5 5 3 10 3.</_></rects>
      <tilted>0</tilted></_>
    <_>
      <rects>
        <_>
          2 9 6 5 -1.</_>
        <_>
          4 9 2 5 3.</_></rects>
      <tilted>0</tilted></_>
    <_>
      <rects>
        <_>
          3 2 3 4 -1.</_>
        <_>
          3 4 3 2 2.</_></rects>
      <tilted>0</tilted></_>
    <_>
      <rects>
        <_>
          3 6 6 5 -1.</_>
        <_>
          5 6 2 5 3.</_></rects>
      <tilted>0</tilted></_>
    <_>
      <rects>
        <_>
          4 3 4 6 -1.</_>
        <_>
          4 3 2 3 2.</_>
        <_>
          6 6 2 3 2.</_></rects>
      <tilted>0</tilted></_>
    <_>
      <rects>
        <_>
          5 10 6 5 -1.</_>
        <_>
          8 10 3 5 2.</_></rects>
      <tilted>0</tilted></_>
    <_>
      <rects>
        <_>
          5 10 8 4 -1.</_>
        <_>
          9 10 4 4 2.</_></rects>
      <tilted>0</tilted></_>
    <_>
      <rects>
        <_>
          5 13 6 4 -1.</_>
        <_>
          5 13 3 2 2.</_>
        <_>
          8 15 3 2 2.</_></rects>
      <tilted>0</tilted></_>
    <_>
      <rects>
        <_>
          6 7 6 5 -1.</_>
        <_>
          9 7 3 5 2.</_></rects>
      <tilted>0</tilted></_>
    <_>
      <rects>
        <_>
          6 7 9 4 -1.</_>
        <_>
          6 9 9 2 2.</_></rects>
      <tilted>0</tilted></_>
    <_>
      <rects>
        <_>
          6 8 6 4 -1.</_>
        <_>
          9 8 3 4 2.</_></rects>
      <tilted>0</tilted></_>
    <_>
      <rects>
        <_>
          6 8 6 5 -1.</_>
        <_>
          9 8 3 5 2.</_></rects>
      <tilted>0</tilted></_>
    <_>
      <rects>
        <_>
          6 8 8 4 -1.</_>
        <_>
          10 8 4 4 2.</_></rects>
      <tilted>0</tilted></_>
    <_>
      <rects>
        <_>
          6 10 6 3 -1.</_>
        <_>
          9 10 3 3 2.</_></rects>
      <tilted>0</tilted></_>
    <_>
      <rects>
        <_>
          7 1 2 4 -1.</_>
        <_>
          8 1 1 4 2.</_></rects>
      <tilted>0</tilted></_>
    <_>
      <rects>
        <_>
          7 1 6 6 -1.</_>
        <_>
          7 3 6 2 3.</_></rects>
      <tilted>0</tilted></_>
    <_>
      <rects>
        <_>
          7 3 4 6 -1.</_>
        <_>
          7 5 4 2 3.</_></rects>
      <tilted>0</tilted></_>
    <_>
      <rects>
        <_>
          7 7 6 7 -1.</_>
        <_>
          10 7 3 7 2.</_></rects>
      <tilted>0</tilted></_>
    <_>
      <rects>
        <_>
          8 2 4 6 -1.</_>
        <_>
          8 4 4 2 3.</_></rects>
      <tilted>0</tilted></_>
    <_>
      <rects>
        <_>
          8 3 3 4 -1.</_>
        <_>
          8 5 3 2 2.</_></rects>
      <tilted>0</tilted></_>
    <_>
      <rects>
        <_>
          8 3 4 8 -1.</_>
        <_>
          8 7 4 4 2.</_></rects>
      <tilted>0</tilted></_>
    <_>
      <rects>
        <_>
          8 3 4 12 -1.</_>
        <_>
          8 9 4 6 2.</_></rects>
      <tilted>0</tilted></_>
    <_>
      <rects>
        <_>
          8 4 4 16 -1.</_>
        <_>
          8 12 4 8 2.</_></rects>
      <tilted>0</tilted></_>
    <_>
      <rects>
        <_>
          8 5 2 6 -1.</_>
        <_>
          8 8 2 3 2.</_></rects>
      <tilted>0</tilted></_>
    <_>
      <rects>
        <_>
          8 6 3 9 -1.</_>
        <_>
          8 9 3 3 3.</_></rects>
      <tilted>0</tilted></_>
    <_>
      <rects>
        <_>
          8 7 4 7 -1.</_>
        <_>
          10 7 2 7 2.</_></rects>
      <tilted>0</tilted></_>
    <_>
      <rects>
        <_>
          8 7 5 6 -1.</_>
        <_>
          8 10 5 3 2.</_></rects>
      <tilted>0</tilted></_>
    <_>
      <rects>
        <_>
          8 8 6 6 -1.</_>
        <_>
          11 8 3 6 2.</_></rects>
      <tilted>0</tilted></_>
    <_>
      <rects>
        <_>
          8 11 3 9 -1.</_>
        <_>
          8 14 3 3 3.</_></rects>
      <tilted>0</tilted></_>
    <_>
      <rects>
        <_>
          9 3 3 12 -1.</_>
        <_>
          9 9 3 6 2.</_></rects>
      <tilted>0</tilted></_>
    <_>
      <rects>
        <_>
          9 3 8 6 -1.</_>
        <_>
          9 3 4 3 2.</_>
        <_>
          13 6 4 3 2.</_></rects>
      <tilted>0</tilted></_>
    <_>
      <rects>
        <_>
          9 6 3 6 -1.</_>
        <_>
          9 9 3 3 2.</_></rects>
      <tilted>0</tilted></_>
    <_>
      <rects>
        <_>
          9 6 3 10 -1.</_>
        <_>
          9 11 3 5 2.</_></rects>
      <tilted>0</tilted></_>
    <_>
      <rects>
        <_>
          9 8 4 5 -1.</_>
        <_>
          11 8 2 5 2.</_></rects>
      <tilted>0</tilted></_>
    <_>
      <rects>
        <_>
          10 7 2 10 -1.</_>
        <_>
          10 12 2 5 2.</_></rects>
      <tilted>0</tilted></_>
    <_>
      <rects>
        <_>
          10 18 1 2 -1.</_>
        <_>
          10 19 1 1 2.</_></rects>
      <tilted>0</tilted></_>
    <_>
      <rects>
        <_>
          11 4 6 6 -1.</_>
        <_>
          11 4 3 3 2.</_>
        <_>
          14 7 3 3 2.</_></rects>
      <tilted>0</tilted></_>
    <_>
      <rects>
        <_>
          11 6 6 4 -1.</_>
        <_>
          13 6 2 4 3.</_></rects>
      <tilted>0</tilted></_>
    <_>
      <rects>
        <_>
          11 7 6 7 -1.</_>
        <_>
          13 7 2 7 3.</_></rects>
      <tilted>0</tilted></_>
    <_>
      <rects>
        <_>
          11 8 2 6 -1.</_>
        <_>
          11 11 2 3 2.</_></rects>
      <tilted>0</tilted></_>
    <_>
      <rects>
        <_>
          11 8 6 5 -1.</_>
        <_>
          14 8 3 5 2.</_></rects>
      <tilted>0</tilted></_>
    <_>
      <rects>
        <_>
          11 9 6 4 -1.</_>
        <_>
          13 9 2 4 3.</_></rects>
      <tilted>0</tilted></_>
    <_>
      <rects>
        <_>
          11 10 9 2 -1.</_>
        <_>
          14 10 3 2 3.</_></rects>
      <tilted>0</tilted></_>
    <_>
      <rects>
        <_>
          11 16 6 2 -1.</_>
        <_>
          11 17 6 1 2.</_></rects>
      <tilted>0</tilted></_>
    <_>
      <rects>
        <_>
          12 5 6 4 -1.</_>
        <_>
          12 5 3 2 2.</_>
        <_>
          15 7 3 2 2.</_></rects>
      <tilted>0</tilted></_>
    <_>
      <rects>
        <_>
          16 2 1 6 -1.</_>
        <_>
          16 5 1 3 2.</_></rects>
      <tilted>0</tilted></_></features></cascade>
</opencv_storage>
